digraph Tree {
node [shape=box, style="filled, rounded", color="black", fontname=helvetica] ;
edge [fontname=helvetica] ;
0 [label="PAY_1 <= 1.5\nentropy = 0.763\nsamples = 22500\nvalue = [17513, 4987]\nclass = True", fillcolor="#eca571"] ;
1 [label="PAY_2 <= 1.5\nentropy = 0.65\nsamples = 20145\nvalue = [16786, 3359]\nclass = True", fillcolor="#ea9a61"] ;
0 -> 1 [labeldistance=2.5, labelangle=45, headlabel="True"] ;
2 [label="PAY_AMT_MEAN <= 2011.5\nentropy = 0.594\nsamples = 18469\nvalue = [15812, 2657]\nclass = True", fillcolor="#e9965a"] ;
1 -> 2 ;
3 [label="BILL_AMT_MEAN <= 29.0\nentropy = 0.723\nsamples = 7604\nvalue = [6081, 1523]\nclass = True", fillcolor="#eca16b"] ;
2 -> 3 ;
4 [label="AGE <= 55.5\nentropy = 0.932\nsamples = 794\nvalue = [518, 276]\nclass = True", fillcolor="#f3c4a2"] ;
3 -> 4 ;
5 [label="PAY_AMT1 <= 280.0\nentropy = 0.913\nsamples = 765\nvalue = [514, 251]\nclass = True", fillcolor="#f2bf9a"] ;
4 -> 5 ;
6 [label="entropy = 0.921\nsamples = 747\nvalue = [496, 251]\nclass = True", fillcolor="#f2c19d"] ;
5 -> 6 ;
7 [label="entropy = 0.0\nsamples = 18\nvalue = [18, 0]\nclass = True", fillcolor="#e58139"] ;
5 -> 7 ;
8 [label="AGE <= 59.5\nentropy = 0.579\nsamples = 29\nvalue = [4, 25]\nclass = False", fillcolor="#59ade9"] ;
4 -> 8 ;
9 [label="entropy = 0.0\nsamples = 10\nvalue = [0, 10]\nclass = False", fillcolor="#399de5"] ;
8 -> 9 ;
10 [label="entropy = 0.742\nsamples = 19\nvalue = [4, 15]\nclass = False", fillcolor="#6eb7ec"] ;
8 -> 10 ;
11 [label="PAY_4 <= 1.0\nentropy = 0.687\nsamples = 6810\nvalue = [5563, 1247]\nclass = True", fillcolor="#eb9d65"] ;
3 -> 11 ;
12 [label="BILL_AMT1 <= 19649.5\nentropy = 0.661\nsamples = 6328\nvalue = [5243, 1085]\nclass = True", fillcolor="#ea9b62"] ;
11 -> 12 ;
13 [label="entropy = 0.712\nsamples = 3988\nvalue = [3210, 778]\nclass = True", fillcolor="#eba069"] ;
12 -> 13 ;
14 [label="entropy = 0.561\nsamples = 2340\nvalue = [2033, 307]\nclass = True", fillcolor="#e99457"] ;
12 -> 14 ;
15 [label="LIMIT_BAL <= 145000.0\nentropy = 0.921\nsamples = 482\nvalue = [320, 162]\nclass = True", fillcolor="#f2c19d"] ;
11 -> 15 ;
16 [label="entropy = 0.952\nsamples = 388\nvalue = [244, 144]\nclass = True", fillcolor="#f4cbae"] ;
15 -> 16 ;
17 [label="entropy = 0.705\nsamples = 94\nvalue = [76, 18]\nclass = True", fillcolor="#eb9f68"] ;
15 -> 17 ;
18 [label="PAY_4 <= 0.5\nentropy = 0.483\nsamples = 10865\nvalue = [9731, 1134]\nclass = True", fillcolor="#e89050"] ;
2 -> 18 ;
19 [label="LIMIT_BAL <= 75000.0\nentropy = 0.461\nsamples = 10436\nvalue = [9417, 1019]\nclass = True", fillcolor="#e88f4e"] ;
18 -> 19 ;
20 [label="PAY_AMT2 <= 3785.0\nentropy = 0.609\nsamples = 1503\nvalue = [1278, 225]\nclass = True", fillcolor="#ea975c"] ;
19 -> 20 ;
21 [label="entropy = 0.667\nsamples = 1081\nvalue = [893, 188]\nclass = True", fillcolor="#ea9c63"] ;
20 -> 21 ;
22 [label="entropy = 0.429\nsamples = 422\nvalue = [385, 37]\nclass = True", fillcolor="#e78d4c"] ;
20 -> 22 ;
23 [label="BILL_AMT1 <= 1339.5\nentropy = 0.433\nsamples = 8933\nvalue = [8139, 794]\nclass = True", fillcolor="#e88d4c"] ;
19 -> 23 ;
24 [label="entropy = 0.608\nsamples = 918\nvalue = [781, 137]\nclass = True", fillcolor="#ea975c"] ;
23 -> 24 ;
25 [label="entropy = 0.409\nsamples = 8015\nvalue = [7358, 657]\nclass = True", fillcolor="#e78c4b"] ;
23 -> 25 ;
26 [label="PAY_AMT2 <= 11460.5\nentropy = 0.839\nsamples = 429\nvalue = [314, 115]\nclass = True", fillcolor="#efaf82"] ;
18 -> 26 ;
27 [label="BILL_AMT5 <= 135189.0\nentropy = 0.88\nsamples = 361\nvalue = [253, 108]\nclass = True", fillcolor="#f0b78e"] ;
26 -> 27 ;
28 [label="entropy = 0.848\nsamples = 335\nvalue = [243, 92]\nclass = True", fillcolor="#efb184"] ;
27 -> 28 ;
29 [label="entropy = 0.961\nsamples = 26\nvalue = [10, 16]\nclass = False", fillcolor="#b5daf5"] ;
27 -> 29 ;
30 [label="PAY_AMT4 <= 5052.5\nentropy = 0.478\nsamples = 68\nvalue = [61, 7]\nclass = True", fillcolor="#e88f50"] ;
26 -> 30 ;
31 [label="entropy = 0.632\nsamples = 44\nvalue = [37, 7]\nclass = True", fillcolor="#ea995e"] ;
30 -> 31 ;
32 [label="entropy = 0.0\nsamples = 24\nvalue = [24, 0]\nclass = True", fillcolor="#e58139"] ;
30 -> 32 ;
33 [label="PAY_MODE_SEVEREST <= 1.0\nentropy = 0.981\nsamples = 1676\nvalue = [974, 702]\nclass = True", fillcolor="#f8dcc8"] ;
1 -> 33 ;
34 [label="PAY_AMT6 <= 7366.5\nentropy = 0.934\nsamples = 947\nvalue = [616, 331]\nclass = True", fillcolor="#f3c5a3"] ;
33 -> 34 ;
35 [label="PAY_AMT_MEAN <= 682.5\nentropy = 0.949\nsamples = 871\nvalue = [551, 320]\nclass = True", fillcolor="#f4caac"] ;
34 -> 35 ;
36 [label="PAY_AMT_MEAN <= 670.0\nentropy = 0.999\nsamples = 192\nvalue = [100, 92]\nclass = True", fillcolor="#fdf5ef"] ;
35 -> 36 ;
37 [label="entropy = 0.996\nsamples = 186\nvalue = [100, 86]\nclass = True", fillcolor="#fbede3"] ;
36 -> 37 ;
38 [label="entropy = 0.0\nsamples = 6\nvalue = [0, 6]\nclass = False", fillcolor="#399de5"] ;
36 -> 38 ;
39 [label="PAY_2 <= 2.5\nentropy = 0.921\nsamples = 679\nvalue = [451, 228]\nclass = True", fillcolor="#f2c19d"] ;
35 -> 39 ;
40 [label="entropy = 0.909\nsamples = 654\nvalue = [442, 212]\nclass = True", fillcolor="#f1bd98"] ;
39 -> 40 ;
41 [label="entropy = 0.943\nsamples = 25\nvalue = [9, 16]\nclass = False", fillcolor="#a8d4f4"] ;
39 -> 41 ;
42 [label="BILL_AMT4 <= 8356.5\nentropy = 0.597\nsamples = 76\nvalue = [65, 11]\nclass = True", fillcolor="#e9965b"] ;
34 -> 42 ;
43 [label="entropy = 0.0\nsamples = 21\nvalue = [21, 0]\nclass = True", fillcolor="#e58139"] ;
42 -> 43 ;
44 [label="BILL_AMT5 <= 8446.5\nentropy = 0.722\nsamples = 55\nvalue = [44, 11]\nclass = True", fillcolor="#eca06a"] ;
42 -> 44 ;
45 [label="entropy = 0.918\nsamples = 6\nvalue = [2, 4]\nclass = False", fillcolor="#9ccef2"] ;
44 -> 45 ;
46 [label="entropy = 0.592\nsamples = 49\nvalue = [42, 7]\nclass = True", fillcolor="#e9965a"] ;
44 -> 46 ;
47 [label="PAY_AMT2 <= 8821.0\nentropy = 1.0\nsamples = 729\nvalue = [358, 371]\nclass = False", fillcolor="#f8fcfe"] ;
33 -> 47 ;
48 [label="BILL_AMT_MEAN <= 125518.5\nentropy = 0.999\nsamples = 698\nvalue = [334, 364]\nclass = False", fillcolor="#eff7fd"] ;
47 -> 48 ;
49 [label="SEX <= 1.5\nentropy = 1.0\nsamples = 672\nvalue = [330, 342]\nclass = False", fillcolor="#f8fcfe"] ;
48 -> 49 ;
50 [label="entropy = 0.984\nsamples = 296\nvalue = [126, 170]\nclass = False", fillcolor="#cce6f8"] ;
49 -> 50 ;
51 [label="entropy = 0.995\nsamples = 376\nvalue = [204, 172]\nclass = True", fillcolor="#fbebe0"] ;
49 -> 51 ;
52 [label="PAY_AMT3 <= 6928.5\nentropy = 0.619\nsamples = 26\nvalue = [4, 22]\nclass = False", fillcolor="#5dafea"] ;
48 -> 52 ;
53 [label="entropy = 0.863\nsamples = 14\nvalue = [4, 10]\nclass = False", fillcolor="#88c4ef"] ;
52 -> 53 ;
54 [label="entropy = 0.0\nsamples = 12\nvalue = [0, 12]\nclass = False", fillcolor="#399de5"] ;
52 -> 54 ;
55 [label="LIMIT_BAL <= 340000.0\nentropy = 0.771\nsamples = 31\nvalue = [24, 7]\nclass = True", fillcolor="#eda673"] ;
47 -> 55 ;
56 [label="PAY_AMT_MEAN <= 4469.0\nentropy = 0.663\nsamples = 29\nvalue = [24, 5]\nclass = True", fillcolor="#ea9b62"] ;
55 -> 56 ;
57 [label="entropy = 0.0\nsamples = 9\nvalue = [9, 0]\nclass = True", fillcolor="#e58139"] ;
56 -> 57 ;
58 [label="entropy = 0.811\nsamples = 20\nvalue = [15, 5]\nclass = True", fillcolor="#eeab7b"] ;
56 -> 58 ;
59 [label="entropy = 0.0\nsamples = 2\nvalue = [0, 2]\nclass = False", fillcolor="#399de5"] ;
55 -> 59 ;
60 [label="BILL_AMT1 <= 1006.5\nentropy = 0.892\nsamples = 2355\nvalue = [727, 1628]\nclass = False", fillcolor="#91c9f1"] ;
0 -> 60 [labeldistance=2.5, labelangle=-45, headlabel="False"] ;
61 [label="AGE <= 48.5\nentropy = 0.971\nsamples = 105\nvalue = [63, 42]\nclass = True", fillcolor="#f6d5bd"] ;
60 -> 61 ;
62 [label="PAY_AMT_MEAN <= 666.5\nentropy = 0.922\nsamples = 92\nvalue = [61, 31]\nclass = True", fillcolor="#f2c19e"] ;
61 -> 62 ;
63 [label="BILL_AMT2 <= 114.5\nentropy = 1.0\nsamples = 49\nvalue = [25, 24]\nclass = True", fillcolor="#fefaf7"] ;
62 -> 63 ;
64 [label="entropy = 0.0\nsamples = 6\nvalue = [6, 0]\nclass = True", fillcolor="#e58139"] ;
63 -> 64 ;
65 [label="PAY_AMT5 <= 990.0\nentropy = 0.99\nsamples = 43\nvalue = [19, 24]\nclass = False", fillcolor="#d6ebfa"] ;
63 -> 65 ;
66 [label="entropy = 0.971\nsamples = 40\nvalue = [16, 24]\nclass = False", fillcolor="#bddef6"] ;
65 -> 66 ;
67 [label="entropy = 0.0\nsamples = 3\nvalue = [3, 0]\nclass = True", fillcolor="#e58139"] ;
65 -> 67 ;
68 [label="PAY_AMT5 <= 22059.0\nentropy = 0.641\nsamples = 43\nvalue = [36, 7]\nclass = True", fillcolor="#ea9a5f"] ;
62 -> 68 ;
69 [label="PAY_AMT2 <= 344.5\nentropy = 0.469\nsamples = 40\nvalue = [36, 4]\nclass = True", fillcolor="#e88f4f"] ;
68 -> 69 ;
70 [label="entropy = 0.811\nsamples = 16\nvalue = [12, 4]\nclass = True", fillcolor="#eeab7b"] ;
69 -> 70 ;
71 [label="entropy = 0.0\nsamples = 24\nvalue = [24, 0]\nclass = True", fillcolor="#e58139"] ;
69 -> 71 ;
72 [label="entropy = 0.0\nsamples = 3\nvalue = [0, 3]\nclass = False", fillcolor="#399de5"] ;
68 -> 72 ;
73 [label="PAY_AMT5 <= 1429.0\nentropy = 0.619\nsamples = 13\nvalue = [2, 11]\nclass = False", fillcolor="#5dafea"] ;
61 -> 73 ;
74 [label="entropy = 0.0\nsamples = 9\nvalue = [0, 9]\nclass = False", fillcolor="#399de5"] ;
73 -> 74 ;
75 [label="PAY_3 <= -0.5\nentropy = 1.0\nsamples = 4\nvalue = [2, 2]\nclass = True", fillcolor="#ffffff"] ;
73 -> 75 ;
76 [label="entropy = 0.0\nsamples = 2\nvalue = [2, 0]\nclass = True", fillcolor="#e58139"] ;
75 -> 76 ;
77 [label="entropy = 0.0\nsamples = 2\nvalue = [0, 2]\nclass = False", fillcolor="#399de5"] ;
75 -> 77 ;
78 [label="PAY_6 <= 1.0\nentropy = 0.875\nsamples = 2250\nvalue = [664, 1586]\nclass = False", fillcolor="#8cc6f0"] ;
60 -> 78 ;
79 [label="EDUCATION <= 3.5\nentropy = 0.921\nsamples = 1350\nvalue = [454, 896]\nclass = False", fillcolor="#9dcff2"] ;
78 -> 79 ;
80 [label="BILL_AMT1 <= 1140.0\nentropy = 0.914\nsamples = 1330\nvalue = [438, 892]\nclass = False", fillcolor="#9acdf2"] ;
79 -> 80 ;
81 [label="entropy = 0.0\nsamples = 8\nvalue = [0, 8]\nclass = False", fillcolor="#399de5"] ;
80 -> 81 ;
82 [label="BILL_AMT1 <= 2207.5\nentropy = 0.916\nsamples = 1322\nvalue = [438, 884]\nclass = False", fillcolor="#9bcef2"] ;
80 -> 82 ;
83 [label="entropy = 0.997\nsamples = 47\nvalue = [25, 22]\nclass = True", fillcolor="#fcf0e7"] ;
82 -> 83 ;
84 [label="entropy = 0.909\nsamples = 1275\nvalue = [413, 862]\nclass = False", fillcolor="#98ccf1"] ;
82 -> 84 ;
85 [label="PAY_AMT3 <= 1600.0\nentropy = 0.722\nsamples = 20\nvalue = [16, 4]\nclass = True", fillcolor="#eca06a"] ;
79 -> 85 ;
86 [label="SEX <= 1.5\nentropy = 0.985\nsamples = 7\nvalue = [3, 4]\nclass = False", fillcolor="#cee6f8"] ;
85 -> 86 ;
87 [label="entropy = 0.811\nsamples = 4\nvalue = [3, 1]\nclass = True", fillcolor="#eeab7b"] ;
86 -> 87 ;
88 [label="entropy = 0.0\nsamples = 3\nvalue = [0, 3]\nclass = False", fillcolor="#399de5"] ;
86 -> 88 ;
89 [label="entropy = 0.0\nsamples = 13\nvalue = [13, 0]\nclass = True", fillcolor="#e58139"] ;
85 -> 89 ;
90 [label="PAY_AMT3 <= 12150.0\nentropy = 0.784\nsamples = 900\nvalue = [210, 690]\nclass = False", fillcolor="#75bbed"] ;
78 -> 90 ;
91 [label="BILL_AMT1 <= 183750.0\nentropy = 0.766\nsamples = 877\nvalue = [196, 681]\nclass = False", fillcolor="#72b9ec"] ;
90 -> 91 ;
92 [label="PAY_2 <= 3.5\nentropy = 0.781\nsamples = 842\nvalue = [195, 647]\nclass = False", fillcolor="#75bbed"] ;
91 -> 92 ;
93 [label="entropy = 0.757\nsamples = 801\nvalue = [175, 626]\nclass = False", fillcolor="#70b8ec"] ;
92 -> 93 ;
94 [label="entropy = 1.0\nsamples = 41\nvalue = [20, 21]\nclass = False", fillcolor="#f6fafe"] ;
92 -> 94 ;
95 [label="PAY_AMT_MEAN <= 20585.0\nentropy = 0.187\nsamples = 35\nvalue = [1, 34]\nclass = False", fillcolor="#3fa0e6"] ;
91 -> 95 ;
96 [label="entropy = 0.0\nsamples = 34\nvalue = [0, 34]\nclass = False", fillcolor="#399de5"] ;
95 -> 96 ;
97 [label="entropy = 0.0\nsamples = 1\nvalue = [1, 0]\nclass = True", fillcolor="#e58139"] ;
95 -> 97 ;
98 [label="PAY_4 <= 1.0\nentropy = 0.966\nsamples = 23\nvalue = [14, 9]\nclass = True", fillcolor="#f6d2b8"] ;
90 -> 98 ;
99 [label="PAY_AMT3 <= 19533.5\nentropy = 0.881\nsamples = 10\nvalue = [3, 7]\nclass = False", fillcolor="#8ec7f0"] ;
98 -> 99 ;
100 [label="entropy = 0.0\nsamples = 6\nvalue = [0, 6]\nclass = False", fillcolor="#399de5"] ;
99 -> 100 ;
101 [label="entropy = 0.811\nsamples = 4\nvalue = [3, 1]\nclass = True", fillcolor="#eeab7b"] ;
99 -> 101 ;
102 [label="PAY_AMT4 <= 8000.0\nentropy = 0.619\nsamples = 13\nvalue = [11, 2]\nclass = True", fillcolor="#ea985d"] ;
98 -> 102 ;
103 [label="entropy = 0.918\nsamples = 6\nvalue = [4, 2]\nclass = True", fillcolor="#f2c09c"] ;
102 -> 103 ;
104 [label="entropy = 0.0\nsamples = 7\nvalue = [7, 0]\nclass = True", fillcolor="#e58139"] ;
102 -> 104 ;
}