digraph Tree {
node [shape=box, style="filled, rounded", color="black", fontname=helvetica] ;
edge [fontname=helvetica] ;
0 [label="PAY_1 <= 1.5\nentropy = 0.763\nsamples = 22500\nvalue = [17513, 4987]\nclass = True", fillcolor="#eca571"] ;
1 [label="PAY_2 <= 1.5\nentropy = 0.65\nsamples = 20145\nvalue = [16786, 3359]\nclass = True", fillcolor="#ea9a61"] ;
0 -> 1 [labeldistance=2.5, labelangle=45, headlabel="True"] ;
2 [label="PAY_AMT2 <= 1500.5\nentropy = 0.594\nsamples = 18469\nvalue = [15812, 2657]\nclass = True", fillcolor="#e9965a"] ;
1 -> 2 ;
3 [label="BILL_AMT1 <= 393.0\nentropy = 0.727\nsamples = 6752\nvalue = [5386, 1366]\nclass = True", fillcolor="#eca16b"] ;
2 -> 3 ;
4 [label="PAY_AMT3 <= 1.5\nentropy = 0.824\nsamples = 2100\nvalue = [1558, 542]\nclass = True", fillcolor="#eead7e"] ;
3 -> 4 ;
5 [label="entropy = 0.885\nsamples = 1295\nvalue = [902, 393]\nclass = True", fillcolor="#f0b88f"] ;
4 -> 5 ;
6 [label="entropy = 0.691\nsamples = 805\nvalue = [656, 149]\nclass = True", fillcolor="#eb9e66"] ;
4 -> 6 ;
7 [label="LIMIT_BAL <= 85000.0\nentropy = 0.674\nsamples = 4652\nvalue = [3828, 824]\nclass = True", fillcolor="#eb9c64"] ;
3 -> 7 ;
8 [label="entropy = 0.763\nsamples = 2134\nvalue = [1661, 473]\nclass = True", fillcolor="#eca571"] ;
7 -> 8 ;
9 [label="entropy = 0.583\nsamples = 2518\nvalue = [2167, 351]\nclass = True", fillcolor="#e99559"] ;
7 -> 9 ;
10 [label="PAY_4 <= 0.5\nentropy = 0.5\nsamples = 11717\nvalue = [10426, 1291]\nclass = True", fillcolor="#e89152"] ;
2 -> 10 ;
11 [label="LIMIT_BAL <= 75000.0\nentropy = 0.47\nsamples = 11093\nvalue = [9980, 1113]\nclass = True", fillcolor="#e88f4f"] ;
10 -> 11 ;
12 [label="entropy = 0.607\nsamples = 2366\nvalue = [2014, 352]\nclass = True", fillcolor="#ea975c"] ;
11 -> 12 ;
13 [label="entropy = 0.427\nsamples = 8727\nvalue = [7966, 761]\nclass = True", fillcolor="#e78d4c"] ;
11 -> 13 ;
14 [label="PAY_AMT2 <= 11460.5\nentropy = 0.863\nsamples = 624\nvalue = [446, 178]\nclass = True", fillcolor="#efb388"] ;
10 -> 14 ;
15 [label="entropy = 0.891\nsamples = 555\nvalue = [384, 171]\nclass = True", fillcolor="#f1b991"] ;
14 -> 15 ;
16 [label="entropy = 0.474\nsamples = 69\nvalue = [62, 7]\nclass = True", fillcolor="#e88f4f"] ;
14 -> 16 ;
17 [label="PAY_6 <= 1.0\nentropy = 0.981\nsamples = 1676\nvalue = [974, 702]\nclass = True", fillcolor="#f8dcc8"] ;
1 -> 17 ;
18 [label="PAY_3 <= 1.0\nentropy = 0.952\nsamples = 1184\nvalue = [744, 440]\nclass = True", fillcolor="#f4ccae"] ;
17 -> 18 ;
19 [label="PAY_AMT1 <= 5.5\nentropy = 0.901\nsamples = 650\nvalue = [444, 206]\nclass = True", fillcolor="#f1bb95"] ;
18 -> 19 ;
20 [label="entropy = 0.928\nsamples = 530\nvalue = [348, 182]\nclass = True", fillcolor="#f3c3a1"] ;
19 -> 20 ;
21 [label="entropy = 0.722\nsamples = 120\nvalue = [96, 24]\nclass = True", fillcolor="#eca06a"] ;
19 -> 21 ;
22 [label="PAY_AMT4 <= 2001.0\nentropy = 0.989\nsamples = 534\nvalue = [300, 234]\nclass = True", fillcolor="#f9e3d3"] ;
18 -> 22 ;
23 [label="entropy = 0.997\nsamples = 428\nvalue = [228, 200]\nclass = True", fillcolor="#fcf0e7"] ;
22 -> 23 ;
24 [label="entropy = 0.905\nsamples = 106\nvalue = [72, 34]\nclass = True", fillcolor="#f1bc96"] ;
22 -> 24 ;
25 [label="PAY_AMT2 <= 8821.0\nentropy = 0.997\nsamples = 492\nvalue = [230, 262]\nclass = False", fillcolor="#e7f3fc"] ;
17 -> 25 ;
26 [label="BILL_AMT6 <= 136812.0\nentropy = 0.993\nsamples = 472\nvalue = [213, 259]\nclass = False", fillcolor="#dceefa"] ;
25 -> 26 ;
27 [label="entropy = 0.996\nsamples = 455\nvalue = [211, 244]\nclass = False", fillcolor="#e4f2fb"] ;
26 -> 27 ;
28 [label="entropy = 0.523\nsamples = 17\nvalue = [2, 15]\nclass = False", fillcolor="#53aae8"] ;
26 -> 28 ;
29 [label="PAY_6 <= 4.5\nentropy = 0.61\nsamples = 20\nvalue = [17, 3]\nclass = True", fillcolor="#ea975c"] ;
25 -> 29 ;
30 [label="entropy = 0.485\nsamples = 19\nvalue = [17, 2]\nclass = True", fillcolor="#e89050"] ;
29 -> 30 ;
31 [label="entropy = 0.0\nsamples = 1\nvalue = [0, 1]\nclass = False", fillcolor="#399de5"] ;
29 -> 31 ;
32 [label="BILL_AMT1 <= 1006.5\nentropy = 0.892\nsamples = 2355\nvalue = [727, 1628]\nclass = False", fillcolor="#91c9f1"] ;
0 -> 32 [labeldistance=2.5, labelangle=-45, headlabel="False"] ;
33 [label="AGE <= 48.5\nentropy = 0.971\nsamples = 105\nvalue = [63, 42]\nclass = True", fillcolor="#f6d5bd"] ;
32 -> 33 ;
34 [label="PAY_AMT2 <= 691.0\nentropy = 0.922\nsamples = 92\nvalue = [61, 31]\nclass = True", fillcolor="#f2c19e"] ;
33 -> 34 ;
35 [label="BILL_AMT4 <= 83.5\nentropy = 0.982\nsamples = 69\nvalue = [40, 29]\nclass = True", fillcolor="#f8dcc9"] ;
34 -> 35 ;
36 [label="entropy = 0.0\nsamples = 9\nvalue = [9, 0]\nclass = True", fillcolor="#e58139"] ;
35 -> 36 ;
37 [label="entropy = 0.999\nsamples = 60\nvalue = [31, 29]\nclass = True", fillcolor="#fdf7f2"] ;
35 -> 37 ;
38 [label="PAY_AMT5 <= 16808.5\nentropy = 0.426\nsamples = 23\nvalue = [21, 2]\nclass = True", fillcolor="#e78d4c"] ;
34 -> 38 ;
39 [label="entropy = 0.267\nsamples = 22\nvalue = [21, 1]\nclass = True", fillcolor="#e68742"] ;
38 -> 39 ;
40 [label="entropy = 0.0\nsamples = 1\nvalue = [0, 1]\nclass = False", fillcolor="#399de5"] ;
38 -> 40 ;
41 [label="BILL_AMT3 <= 337.5\nentropy = 0.619\nsamples = 13\nvalue = [2, 11]\nclass = False", fillcolor="#5dafea"] ;
33 -> 41 ;
42 [label="LIMIT_BAL <= 75000.0\nentropy = 1.0\nsamples = 4\nvalue = [2, 2]\nclass = True", fillcolor="#ffffff"] ;
41 -> 42 ;
43 [label="entropy = 0.0\nsamples = 2\nvalue = [0, 2]\nclass = False", fillcolor="#399de5"] ;
42 -> 43 ;
44 [label="entropy = 0.0\nsamples = 2\nvalue = [2, 0]\nclass = True", fillcolor="#e58139"] ;
42 -> 44 ;
45 [label="entropy = 0.0\nsamples = 9\nvalue = [0, 9]\nclass = False", fillcolor="#399de5"] ;
41 -> 45 ;
46 [label="PAY_6 <= 1.0\nentropy = 0.875\nsamples = 2250\nvalue = [664, 1586]\nclass = False", fillcolor="#8cc6f0"] ;
32 -> 46 ;
47 [label="EDUCATION <= 3.5\nentropy = 0.921\nsamples = 1350\nvalue = [454, 896]\nclass = False", fillcolor="#9dcff2"] ;
46 -> 47 ;
48 [label="BILL_AMT1 <= 1140.0\nentropy = 0.914\nsamples = 1330\nvalue = [438, 892]\nclass = False", fillcolor="#9acdf2"] ;
47 -> 48 ;
49 [label="entropy = 0.0\nsamples = 8\nvalue = [0, 8]\nclass = False", fillcolor="#399de5"] ;
48 -> 49 ;
50 [label="entropy = 0.916\nsamples = 1322\nvalue = [438, 884]\nclass = False", fillcolor="#9bcef2"] ;
48 -> 50 ;
51 [label="PAY_AMT3 <= 1600.0\nentropy = 0.722\nsamples = 20\nvalue = [16, 4]\nclass = True", fillcolor="#eca06a"] ;
47 -> 51 ;
52 [label="entropy = 0.985\nsamples = 7\nvalue = [3, 4]\nclass = False", fillcolor="#cee6f8"] ;
51 -> 52 ;
53 [label="entropy = 0.0\nsamples = 13\nvalue = [13, 0]\nclass = True", fillcolor="#e58139"] ;
51 -> 53 ;
54 [label="PAY_AMT3 <= 12150.0\nentropy = 0.784\nsamples = 900\nvalue = [210, 690]\nclass = False", fillcolor="#75bbed"] ;
46 -> 54 ;
55 [label="BILL_AMT1 <= 183750.0\nentropy = 0.766\nsamples = 877\nvalue = [196, 681]\nclass = False", fillcolor="#72b9ec"] ;
54 -> 55 ;
56 [label="entropy = 0.781\nsamples = 842\nvalue = [195, 647]\nclass = False", fillcolor="#75bbed"] ;
55 -> 56 ;
57 [label="entropy = 0.187\nsamples = 35\nvalue = [1, 34]\nclass = False", fillcolor="#3fa0e6"] ;
55 -> 57 ;
58 [label="PAY_4 <= 1.0\nentropy = 0.966\nsamples = 23\nvalue = [14, 9]\nclass = True", fillcolor="#f6d2b8"] ;
54 -> 58 ;
59 [label="entropy = 0.881\nsamples = 10\nvalue = [3, 7]\nclass = False", fillcolor="#8ec7f0"] ;
58 -> 59 ;
60 [label="entropy = 0.619\nsamples = 13\nvalue = [11, 2]\nclass = True", fillcolor="#ea985d"] ;
58 -> 60 ;
}